<?xml version="1.0"?>
<opencv_storage>
<stage5>
  <maxWeakCount>15</maxWeakCount>
  <stageThreshold>-9.5188170671463013e-01</stageThreshold>
  <weakClassifiers>
    <_>
      <internalNodes>
        0 -1 175799 4.8144455067813396e-03</internalNodes>
      <leafValues>
        -7.7235773205757141e-02 6.9534051418304443e-01</leafValues></_>
    <_>
      <internalNodes>
        0 -1 2498475 1.7293106764554977e-02</internalNodes>
      <leafValues>
        -1.7084710299968719e-01 7.4544870853424072e-01</leafValues></_>
    <_>
      <internalNodes>
        0 -1 1913993 -1.2317771324887872e-03</internalNodes>
      <leafValues>
        4.6311527490615845e-01 -3.1142407655715942e-01</leafValues></_>
    <_>
      <internalNodes>
        0 -1 2875058 -3.9279554039239883e-03</internalNodes>
      <leafValues>
        5.6613606214523315e-01 -2.3458552360534668e-01</leafValues></_>
    <_>
      <internalNodes>
        0 -1 2582703 -5.5806240998208523e-03</internalNodes>
      <leafValues>
        6.8005561828613281e-01 -2.0754152536392212e-01</leafValues></_>
    <_>
      <internalNodes>
        0 -1 2933871 -1.0910127311944962e-03</internalNodes>
      <leafValues>
        5.7167679071426392e-01 -2.0440928637981415e-01</leafValues></_>
    <_>
      <internalNodes>
        0 -1 977635 3.4958668984472752e-03</internalNodes>
      <leafValues>
        -1.4189979434013367e-01 7.1409696340560913e-01</leafValues></_>
    <_>
      <internalNodes>
        0 -1 993470 1.1507752351462841e-02</internalNodes>
      <leafValues>
        -1.6960202157497406e-01 6.8277305364608765e-01</leafValues></_>
    <_>
      <internalNodes>
        0 -1 2907825 1.3117142952978611e-02</internalNodes>
      <leafValues>
        -1.5975393354892731e-01 6.2484812736511230e-01</leafValues></_>
    <_>
      <internalNodes>
        0 -1 1176795 -5.0595421344041824e-03</internalNodes>
      <leafValues>
        4.8289638757705688e-01 -2.2268036007881165e-01</leafValues></_>
    <_>
      <internalNodes>
        0 -1 1177601 7.2942357510328293e-03</internalNodes>
      <leafValues>
        -1.2585850059986115e-01 8.1597936153411865e-01</leafValues></_>
    <_>
      <internalNodes>
        0 -1 64418 2.8893048875033855e-03</internalNodes>
      <leafValues>
        -2.8489938378334045e-01 3.8702362775802612e-01</leafValues></_>
    <_>
      <internalNodes>
        0 -1 3011645 -5.2425279282033443e-03</internalNodes>
      <leafValues>
        6.4568895101547241e-01 -1.3819563388824463e-01</leafValues></_>
    <_>
      <internalNodes>
        0 -1 2961257 1.8406718736514449e-03</internalNodes>
      <leafValues>
        -2.0219153165817261e-01 5.1017034053802490e-01</leafValues></_>
    <_>
      <internalNodes>
        0 -1 988605 -9.6286195912398398e-05</internalNodes>
      <leafValues>
        -6.8361896276473999e-01 1.7494466900825500e-01</leafValues></_></weakClassifiers></stage5>
</opencv_storage>
